//Numpy array shape [10, 16]
//Min -0.687500000000
//Max 0.781250000000
//Number of zeros 6

#ifndef W17_H_
#define W17_H_

#ifndef __SYNTHESIS__
weight17_t w17[160];
#else
weight17_t w17[160] = {-0.15625, 0.03125, -0.21875, -0.28125, -0.25000, 0.37500, 0.62500, -0.40625, 0.31250, 0.31250, 0.43750, -0.53125, 0.18750, -0.50000, -0.34375, -0.37500, 0.56250, -0.28125, 0.50000, -0.43750, 0.15625, -0.37500, -0.18750, -0.12500, 0.06250, -0.31250, 0.25000, 0.21875, 0.62500, -0.03125, -0.68750, 0.50000, -0.09375, -0.50000, 0.53125, -0.43750, -0.31250, -0.46875, 0.50000, 0.50000, -0.15625, -0.31250, 0.37500, -0.28125, 0.25000, 0.12500, -0.25000, -0.15625, -0.37500, -0.28125, 0.06250, -0.50000, 0.78125, -0.12500, -0.06250, 0.68750, -0.12500, -0.46875, 0.09375, -0.21875, -0.09375, 0.50000, 0.25000, 0.43750, 0.06250, -0.56250, -0.06250, 0.53125, -0.21875, -0.62500, -0.03125, -0.43750, 0.09375, -0.50000, -0.40625, 0.21875, 0.25000, -0.15625, -0.53125, 0.00000, -0.28125, -0.18750, 0.00000, -0.25000, -0.09375, 0.00000, 0.34375, -0.03125, -0.15625, -0.06250, 0.18750, 0.53125, 0.06250, -0.28125, 0.62500, -0.28125, 0.37500, 0.46875, -0.25000, 0.09375, -0.15625, 0.68750, 0.06250, 0.06250, 0.46875, 0.31250, 0.43750, -0.34375, 0.18750, 0.53125, 0.21875, -0.21875, 0.34375, 0.50000, -0.09375, 0.37500, 0.28125, -0.21875, -0.18750, 0.53125, 0.25000, -0.53125, -0.37500, -0.34375, 0.15625, -0.37500, -0.65625, 0.31250, 0.65625, 0.12500, -0.34375, -0.12500, 0.06250, -0.25000, 0.03125, -0.06250, 0.00000, 0.21875, 0.21875, -0.18750, -0.25000, -0.40625, -0.34375, 0.15625, 0.00000, 0.15625, 0.75000, 0.06250, 0.28125, -0.25000, 0.21875, 0.40625, 0.56250, -0.43750, 0.28125, -0.40625, 0.00000, 0.34375, -0.03125, 0.03125};
#endif

#endif
