//Numpy array shape [8, 10]
//Min -0.769003033638
//Max 0.640732407570
//Number of zeros 0

#ifndef W18_H_
#define W18_H_

#ifndef __SYNTHESIS__
output_dense_weight_t w18[80];
#else
output_dense_weight_t w18[80] = {-0.3487568200, 0.0472069569, 0.4837982059, -0.3253493607, 0.3541099429, -0.1962715685, 0.5424035788, -0.1607540995, -0.5707066655, 0.1148726121, -0.1961608231, -0.2769696414, 0.1868850142, -0.0297787134, -0.1743113995, -0.7482770681, 0.5735844374, 0.0928790346, 0.3797714710, 0.2106052339, -0.1102819219, 0.3963049650, 0.3749287426, -0.3538072407, 0.3436325192, 0.4370118082, -0.2091511488, -0.5672901869, -0.1292105913, -0.5579975247, 0.2624058127, 0.3854668140, 0.3772579730, -0.2860896885, 0.0573199540, 0.2868330777, -0.3309547603, -0.0085062617, -0.1883282810, -0.0409155525, 0.6401261687, -0.1746311188, 0.0226136558, -0.1295373440, 0.2570003867, 0.1257342547, -0.2637380064, 0.0050123236, -0.1016088724, -0.4311006367, 0.4434376359, -0.2861319482, -0.1926789582, -0.2651613653, -0.7690030336, 0.5883059502, 0.0078307483, 0.0751931369, 0.4755885303, 0.0877234265, -0.0234942157, -0.3985491693, 0.6407324076, -0.5510008931, 0.1132622287, -0.2092266232, 0.4116859734, -0.3355629742, -0.1791180521, 0.5709277987, 0.2816514671, 0.1488270015, -0.0344044268, 0.4034076631, 0.3617016077, -0.1335063726, -0.5593723655, 0.1421778053, -0.5595428348, -0.3037312627};
#endif

#endif
