//Numpy array shape [3, 3, 3, 4]
//Min -0.406250000000
//Max 0.343750000000
//Number of zeros 8

#ifndef W2_H_
#define W2_H_

#ifndef __SYNTHESIS__
weight2_t w2[108];
#else
weight2_t w2[108] = {0.28125, 0.12500, 0.18750, -0.12500, -0.18750, 0.00000, 0.12500, -0.03125, 0.25000, 0.06250, -0.34375, 0.18750, 0.09375, -0.18750, 0.18750, 0.00000, 0.28125, -0.03125, 0.34375, -0.06250, -0.31250, -0.09375, 0.09375, -0.12500, -0.18750, 0.00000, -0.15625, -0.25000, 0.15625, 0.12500, -0.03125, 0.00000, -0.12500, 0.03125, -0.03125, 0.25000, 0.15625, 0.00000, 0.31250, 0.28125, 0.09375, -0.09375, -0.03125, -0.21875, 0.15625, 0.00000, -0.25000, -0.03125, 0.25000, -0.18750, 0.12500, -0.03125, -0.28125, -0.09375, 0.28125, 0.18750, -0.12500, 0.09375, -0.28125, 0.12500, 0.21875, 0.34375, 0.25000, -0.25000, 0.09375, -0.21875, -0.25000, 0.00000, 0.06250, 0.15625, 0.06250, -0.03125, 0.28125, 0.25000, -0.34375, -0.21875, 0.31250, -0.09375, -0.15625, 0.15625, -0.37500, 0.25000, 0.18750, -0.09375, 0.09375, 0.15625, -0.09375, 0.21875, -0.03125, -0.21875, 0.34375, 0.28125, 0.03125, 0.28125, 0.06250, 0.15625, 0.06250, 0.31250, 0.00000, 0.03125, -0.09375, 0.12500, -0.40625, -0.21875, -0.25000, -0.28125, -0.15625, 0.28125};
#endif

#endif
