//Numpy array shape [16, 10]
//Min -0.766976654530
//Max 0.719300925732
//Number of zeros 0

#ifndef W21_H_
#define W21_H_

#ifndef __SYNTHESIS__
output_dense_weight_t w21[160];
#else
output_dense_weight_t w21[160] = {0.0526145548, 0.1464117914, 0.0617118068, 0.3977964818, -0.0350802615, -0.0099174036, -0.6189053059, -0.1725329608, 0.4017668068, -0.1237791628, -0.2037243396, 0.3576762974, 0.4016311765, -0.3806495965, 0.3323866725, -0.0638520420, 0.2920494080, -0.0801036805, -0.3802019358, -0.2588807642, 0.4035032988, 0.4372916818, -0.2223868370, 0.1794847697, 0.2790530026, 0.0032500373, -0.2258610874, -0.2872042358, -0.5760453939, -0.0106805656, 0.1654918790, 0.1637589484, -0.0672363341, 0.0805167109, -0.4161692858, 0.4816899598, -0.5011864901, 0.3597602248, -0.3827774823, 0.0804159567, 0.3443908691, -0.2317414880, 0.2665275633, -0.1036313400, 0.0350595005, 0.1251999885, -0.3253829777, 0.0137112644, 0.0657264814, -0.2583994567, -0.3618220985, 0.2583972812, 0.0364112407, 0.5097813606, -0.2983619273, -0.1358162165, -0.4977503717, -0.3007773161, 0.1490154564, 0.4921231866, -0.0682394505, -0.2488153577, 0.4844551086, -0.0220007319, -0.0698892027, -0.6904107928, 0.0799842030, 0.3012875617, 0.3061395884, -0.1872026175, -0.0136500830, -0.0663530305, -0.2170775533, -0.3613426089, 0.2416013032, 0.4533089399, -0.1854983121, -0.1232289970, -0.0830129609, 0.3738617301, -0.0327163227, -0.0256132651, -0.2213294655, 0.2403759062, -0.4005080163, -0.2701658010, 0.4968314171, -0.2547208965, 0.2782923579, 0.1714734882, -0.2796504796, -0.0026727142, 0.1436557174, -0.1766460985, 0.2813303769, -0.2504812181, 0.1804115772, -0.0432392322, -0.1379933208, 0.3537221551, -0.4186463058, 0.2384528369, -0.1686288118, 0.4760349393, 0.0552049726, 0.3484463692, -0.1070685983, -0.5723305345, -0.2401989549, 0.3839644194, 0.0717800334, 0.1451464295, 0.2695751190, -0.1892437935, 0.4267157912, 0.0999552533, -0.7669766545, 0.0513976701, 0.0720646605, -0.2432538569, -0.6457449794, 0.2652804852, 0.3819781244, 0.0315783955, -0.4285992384, 0.0086448211, -0.3486046791, 0.2579644620, 0.7193009257, -0.2072982788, 0.3706426322, -0.4882711768, 0.4767825603, 0.3779158890, 0.0506832525, 0.1417732686, -0.6747425795, -0.6352068782, -0.0066705775, 0.3548814952, 0.2357192785, -0.4303957820, 0.1021431237, 0.4472481608, 0.5276812315, -0.1412230134, 0.0682965219, -0.7035536170, -0.5154309273, 0.4924021959, -0.2569638789, -0.3178596497, 0.4527018666, -0.3816758990, 0.3027193248, 0.0216583852, 0.1463578343, 0.3406816721, -0.2963417470, 0.0098383008};
#endif

#endif
