//Numpy array shape [16, 10]
//Min -0.806017994881
//Max 0.348823010921
//Number of zeros 0

#ifndef W21_H_
#define W21_H_

#ifndef __SYNTHESIS__
output_dense_weight_t w21[160];
#else
output_dense_weight_t w21[160] = {-0.0863417536, -0.1568102390, -0.5397162437, -0.0989623219, -0.1581233442, -0.1145652533, -0.1887372583, -0.1536547393, 0.0982741416, -0.3179248273, -0.1364869028, -0.2323883921, -0.3875613511, -0.2697148323, -0.4087233543, -0.4821139872, -0.2412088811, -0.3338466883, 0.1482044011, -0.2610024810, -0.0472732820, -0.0592798032, -0.0600529648, 0.3488230109, 0.3230904341, -0.2331226617, -0.0733784214, -0.1638383567, 0.0933277085, -0.5200815201, -0.0369468927, -0.3500348926, 0.0602592938, -0.4945467114, -0.2426448762, -0.3459977508, -0.1549660563, -0.0105787935, 0.2803081870, -0.2228528410, -0.0219719186, 0.1186320782, -0.0247205533, -0.5102131367, 0.1207175329, -0.3749606609, -0.2800076604, -0.1627752036, -0.8060179949, -0.0566983223, 0.0802891403, 0.2781837583, 0.1553389579, -0.1609474570, 0.0542814471, 0.1614071429, 0.3199336231, -0.0115406867, 0.2388169169, -0.1535620093, -0.2492286414, -0.1588642448, -0.6304436326, -0.3969542086, -0.5938122272, -0.1312564760, -0.5167636871, 0.0513414405, -0.1951920837, 0.1010656953, 0.0326799639, 0.0060201846, -0.0674669296, -0.1683187187, -0.2127245516, 0.1649402082, -0.2411480695, -0.2012501955, -0.4399594367, 0.3071787059, -0.2054291666, -0.2721525431, 0.1785387099, -0.1480701715, 0.2868599892, -0.1072370559, 0.2267262191, -0.1038621366, -0.4852465093, 0.2751123905, -0.1274966151, 0.0582479723, -0.3999564946, 0.0208526067, 0.0858445317, -0.0923350230, 0.1603553146, -0.3026667535, -0.2526530027, -0.3955376744, -0.4627654850, -0.3672721088, 0.1132709682, -0.2026345134, -0.4078853428, 0.1522635818, -0.3191172779, -0.5081564188, -0.2783372402, -0.4179360867, -0.2497309446, -0.4617270827, 0.0651842505, -0.1904728711, -0.2213301659, -0.4086969495, 0.0265276153, -0.4583608806, -0.3480280638, -0.5926186442, -0.4254712164, -0.1522140950, -0.2208263725, 0.0024790352, -0.2319013625, 0.1792621911, -0.0110591147, 0.1386376023, -0.2614776194, 0.2478994131, -0.1075219586, 0.0305397063, -0.0992948040, -0.2679961026, -0.0623486042, -0.5978056788, -0.2782478333, -0.2367739677, -0.4195578694, 0.2204078287, -0.1091671214, -0.2397031039, -0.4022014141, 0.2918965816, -0.3990797102, 0.0427475013, -0.3878129423, 0.1591908187, -0.1557662189, -0.2339446247, -0.2942745388, -0.3929438293, -0.2168969512, -0.0233285520, -0.4939071834, -0.2319867462, -0.2900134623, -0.3597030044, 0.2170398533, -0.1582784504};
#endif

#endif
