//Numpy array shape [64, 10]
//Min -0.911525726318
//Max 1.029798269272
//Number of zeros 0

#ifndef W23_H_
#define W23_H_

#ifndef __SYNTHESIS__
output_dense_weight_t w23[640];
#else
output_dense_weight_t w23[640] = {-0.2038639337, 0.0391188972, 0.5403310657, 0.4448952377, 0.1871716678, -0.4167452753, -0.5388717651, 0.1634344012, 0.4239975214, -0.6150548458, 0.0737893656, 0.1448376626, 0.6443663836, -0.1563135535, 0.3967852294, -0.5259284377, -0.4029433727, 0.6819427013, -0.1823041290, -0.7026379704, 0.0607247576, 0.0498536006, -0.3075034320, 0.2915803194, -0.2827806771, -0.3848328590, -0.8829992414, 0.3927189708, 0.3664048910, -0.1348327547, -0.3855825663, -0.1269290745, 0.1594645381, -0.1091565564, 0.4551123083, 0.5003017783, 0.3197129965, 0.1660912931, -0.4897849262, -0.5506094098, -0.5357949734, -0.1235560253, -0.1920385510, -0.2219493687, 0.5985169411, -0.3670035303, -0.2404642999, -0.2312988341, 0.4925915003, -0.4257284403, -0.4847955108, -0.5237764716, 0.2813901305, -0.1828618199, -0.6758298278, 0.1148070469, 0.3160846531, 0.2661753297, 0.6105573177, -0.1322409809, 0.1851580888, 0.6013564467, -0.5719850063, -0.4604361057, 0.1723173708, -0.2002027482, -0.2970606089, -0.3206241429, -0.0809147283, 0.3969422579, 0.3301723301, -0.1256499887, -0.4126187861, -0.7012760639, 0.3599503040, 0.1291418821, 0.1789433956, -0.4589081109, 0.4005897641, 0.2872147262, 0.4482954443, 0.4805338979, -0.4940882027, -0.5101792216, 0.0302599333, -0.2988460660, -0.3344139457, 0.1001031026, -0.4156528115, 0.2859907150, -0.4822839200, 0.3290924728, -0.1311250925, 0.5315919518, -0.0929552317, -0.2841252685, 0.2876377106, -0.0168351363, 0.4399301708, -0.5387901664, -0.1095934808, 0.4011200070, 0.0892400816, -0.3940688968, -0.0014838832, -0.0894884095, -0.3563296795, 0.5949651599, -0.2465590090, -0.4360554516, -0.7044604421, -0.1888276637, 0.6095186472, -0.0406807698, -0.2330533117, 0.5823668242, -0.1264897585, 0.2656618357, -0.4976945519, -0.5141266584, 0.3932711482, 0.0057505840, -0.3782022297, 0.1787921637, 0.4325879514, -0.2145898938, 0.1832972914, -0.0217184611, -0.4054846764, -0.4092616141, -0.2237444073, -0.3981304467, 0.4721819460, -0.4363933802, -0.3946221769, 0.0731424019, -0.6126919389, 0.4963922203, 0.3927022815, 0.1549267620, 0.3372490406, 0.3312989175, -0.2658133209, -0.0787144080, -0.6703662276, 0.1364146918, 0.2785897553, 0.1804027855, -0.7765930891, -0.5324343443, -0.2212559432, 0.6003326774, 0.4958942235, -0.4482848048, -0.0439706370, -0.2914074063, -0.3936038017, 0.4378372431, 0.0282547977, -0.5511872172, -0.2078459710, -0.0657561645, -0.3522682190, -0.1224785224, -0.4031457305, 0.2613995075, 0.5355386138, 0.5502453446, -0.8388869166, -0.2588474154, 0.6374743581, -0.2776908278, 0.4157577753, -0.2226730585, -0.3164611161, -0.5834236741, -0.5910829902, 0.0841361806, 0.5574092865, 0.3686993420, 0.1656383574, -0.1352002919, -0.1153236851, 0.2811763883, 0.0094214706, 0.5608265996, -0.5299302936, -0.0914954022, -0.2419976741, 0.6810477376, -0.0937162414, 0.1823888868, -0.2016512007, 0.0628010705, 0.5606582165, -0.5746369362, -0.3205396235, 0.6188259721, -0.0485354662, -0.4925752282, -0.1823426932, 0.4295349419, -0.1443392485, 0.4054527879, 0.3253751397, 0.5369557738, 0.3674932718, -0.4241559207, -0.2055999786, -0.2937181890, 0.1530576646, -0.4595595598, 0.5552116036, -0.2085415274, -0.5521756411, -0.3979501426, -0.3597832024, 0.2672865093, -0.2891707718, 0.7212551236, 0.5634309053, 0.4643377662, 0.2099456787, 0.1544585824, -0.2776108384, -0.0545886122, -0.5305556059, -0.3180931211, -0.2646584809, -0.1588393897, 0.1953555346, 0.1647270024, 0.4753099382, -0.2576477528, 0.4523718357, -0.1935052276, -0.1030764878, -0.4688196480, -0.4788549542, -0.4296621382, 0.2463814020, 0.1866495609, -0.5144592524, -0.5814253092, 0.5867419243, -0.3422951996, -0.5356930494, 0.3094821870, -0.2399115860, 0.3107691109, -0.3322000504, -0.4993472695, 0.0844002366, 0.4983374774, -0.7365612984, 0.5824685693, 0.0900156870, -0.2996629775, -0.1098765284, -0.0675374717, 0.6387284398, 0.0812557042, 0.0269215610, -0.1557114720, -0.1428872943, -0.7784738541, 0.4166498482, 0.1161126867, -0.4347133338, -0.4267266095, -0.0987697169, -0.2173948288, 0.2752386630, -0.4371578693, -0.2345440090, -0.6514769197, 0.5605897307, 0.0822882876, -0.1815554500, 0.2033568770, 0.2545085251, -0.3367985785, 0.2573528290, 0.4799646139, -0.0128575321, -0.3030076623, -0.3258674741, -0.4857279658, 0.4344655573, -0.3123897016, -0.5032956004, 0.3351285160, 0.1077709123, 0.5663063526, -0.3111125231, 0.0779005066, -0.1800363064, -0.5535377860, 0.3290017843, 0.0233292636, 0.2152414024, 0.3572438359, -0.5530921817, -0.3513749540, 0.4533534944, -0.6904927492, 0.0987010449, -0.4025998712, 0.4202140272, 0.0371224768, -0.4483424425, -0.1039312780, -0.3621550500, -0.5114925504, 0.4760507941, 0.3604857922, 0.5615810156, -0.2408690900, 0.2667659819, 0.5326117873, -0.4765398800, -0.0213766359, 0.3024215102, 0.5210918188, -0.0574228540, 0.5805845261, -0.5929456949, -0.5471011400, -0.1063345969, 0.1943194419, -0.1987563223, -0.5131703019, -0.1523238719, 0.3080498874, 0.4301427305, 0.5547552109, 0.2380678505, -0.2936592698, 0.1104586199, -0.3250233829, 0.1291682571, 0.4429391623, 0.3039451838, -0.2458300442, 0.2773372829, -0.3009201288, -0.3450316787, -0.4461127520, 0.2645075619, 0.5073471665, 0.4073258042, -0.4958305359, -0.7221894264, 0.1084559113, -0.6182335019, 0.1511072665, 0.1640527248, -0.6684331298, 0.1704606712, 0.2736834884, -0.6984940767, 0.2764582932, -0.4881188869, -0.0694191232, 0.4615915716, -0.1227877289, -0.4102106392, -0.1545041353, -0.3115839362, 0.8104358912, 0.3104666770, 0.0343551897, -0.6638123989, -0.4400810897, -0.5152009130, -0.4057760537, 0.6261366010, -0.0541883372, 0.5023201108, -0.5816515684, -0.1803358048, 0.2606298029, -0.2021691650, 0.5674291849, -0.1925352514, 0.7355937958, -0.7302060127, 0.4788606465, -0.4914211631, -0.2281158715, -0.2694585621, -0.3124413788, -0.1776366681, 0.1566313803, -0.6081336141, 0.4158835113, 0.2205194831, 0.5578582883, 0.3320080042, -0.4503327608, 0.3626809716, 0.5977077484, -0.0870973468, -0.2172507793, -0.2005921304, 0.2378429323, -0.0538590550, -0.1670132726, -0.4369857907, -0.3978576064, 0.0452497378, -0.0181953274, -0.0323215723, 1.0297982693, 0.3525975347, -0.2807179093, -0.2867231667, -0.2708617449, -0.9115257263, -0.2351365238, -0.4304267764, 0.4566595852, -0.1515617520, -0.2246379703, -0.0464284234, -0.2286115885, -0.0074358229, -0.3515467942, 0.5567250252, 0.2293614447, -0.1088204458, -0.0037067365, -0.5877728462, 0.6240163445, 0.1699966490, 0.1962935477, -0.2118247747, 0.1382610947, 0.0039116708, 0.9153541327, 0.4997462928, -0.6225844026, 0.2674946785, 0.0992435589, -0.3814201653, -0.2983950973, -0.1297614425, 0.7100797296, -0.6430479884, 0.3341301978, 0.2481357753, 0.3520806432, 0.5392764807, -0.5708121061, -0.4576183259, -0.1630605608, -0.0098297866, 0.4279558957, -0.3301924765, -0.0514306538, -0.3881075680, 0.1030261293, 0.0639405847, 0.6178069115, -0.4012590349, -0.5375832915, -0.3332923055, 0.6441668272, -0.8048071861, -0.1752720326, -0.2782786787, 0.3282516599, 0.1233708113, -0.3848077655, 0.7374773026, 0.3680076599, -0.2992509902, 0.1944113374, -0.1836631000, 0.0678249300, -0.4807552993, -0.0018887522, -0.3276175559, 0.1502186656, -0.6304358244, 0.2845222950, 0.1381115317, -0.5602879524, 0.0374232344, 0.5129881501, 0.6330254078, -0.4672797322, 0.0106312670, -0.2494999468, -0.5007009506, 0.5284860134, 0.4231168926, -0.2059090436, 0.0476631001, -0.4851118922, -0.2272092104, -0.4488866329, 0.4053705633, 0.3833937943, 0.0485685430, -0.3387083113, -0.5190255642, -0.2604794204, 0.2768201530, 0.1156385988, -0.6067274213, -0.0698345676, -0.3173456788, -0.1096832529, 0.4081544578, 0.3430138826, 0.4700610936, -0.5964246988, 0.5196887255, -0.4279450178, -0.5998616815, 0.2984983027, 0.5980761051, -0.4137133658, -0.4641398787, -0.0404527485, -0.2645061612, 0.0429953746, -0.5161679387, -0.4033145905, 0.5342886448, -0.0386248976, -0.4395786524, -0.3699835539, 0.5258396864, -0.5858501792, 0.7082660198, -0.1349234134, -0.7672918439, -0.3809040785, -0.3056171834, 0.3729612529, 0.3057174683, 0.2177924812, 0.5650179386, -0.1559963226, 0.1882778108, -0.2041342705, -0.7157186866, -0.2094355524, 0.3034772277, 0.3773846030, -0.2944481671, -0.3579455912, -0.4970005751, -0.4329117835, 0.6121444106, -0.0950351954, 0.2921997011, -0.7077168822, -0.1489013433, -0.2779982090, -0.6664045453, 0.1954209954, -0.4759003520, -0.0770734474, 0.2344325185, 0.5106195211, 0.2396605909, 0.3048201799, 0.5624036789, -0.2990659177, 0.4816468060, -0.2926944494, -0.2322632372, -0.4292351604, -0.0938645899, -0.6645702720, -0.0043907650, 0.8047403097, -0.4109506309, 0.5226745605, -0.0284261275, 0.2107644528, -0.2099263966, 0.3338800073, -0.2354485393, -0.2058185637, -0.3472799957, 0.1124316901, -0.3374217153, -0.3486645222, 0.3465090096, -0.1890974343, 0.4277945161, 0.2978458703, 0.1762932688, -0.3793013990, -0.3154623210, 0.5364138484, 0.5351146460, -0.0245163701, -0.1080596894, 0.2587149441, -0.2861512005, 0.1797320545, 0.1021801382, -0.5315827131, -0.2302246690, 0.4836673737, 0.3728134036, -0.2518438101, -0.0808102190, -0.2220035344, 0.4531796873, -0.4897236228, -0.5456110835, -0.6771464348, -0.2821184099, 0.4367004335, -0.1081427187, -0.5171471238, 0.2293149680, 0.3887274861, 0.2428299338, -0.5620397925, 0.4689610302, -0.4157362282, 0.7006835341, -0.2046707571, -0.6409193873, 0.3976060748, -0.1804758012, 0.3431400061, -0.3154424131, -0.1991412789, -0.1286432147, 0.4473617971, -0.2541164756, -0.1780161113};
#endif

#endif
